0,0,0,0
0.0999999999999999,0.201777838853885,-0.988687022508624,3.63637835241807
0.200001,0.0661277643868525,0.815722592967849,-2.36197861766017
0.300001,0.121751062849994,-0.67804851910927,0.548394130949099
0.400002,-1.19546505629375,1.03922508740338,1.20750476707451
0.500003,0.612373377300113,-1.09168280633371,-1.8626797931858
0.600003,0.215516909031127,0.0633984282240436,-0.886562214296219
0.700004,-1.38285507234678,0.726300833383769,1.09738234653811
0.800004,0.884373430468667,-0.778595288754297,-0.0495579667167509
0.900004,-0.164279338331797,-0.109557351948814,-0.694489354517623
1.000005,0.164163221049264,0.336714964929803,-0.56689051979746
1.100005,-0.951074882963841,-0.142748926393878,0.561333755572181
1.200006,1.0345030022608,-0.364653753157185,0.303891480448857
1.300007,-0.387733695441751,0.663426200510637,-0.948716440830833
1.400007,0.514169875173169,-0.598952532880653,-0.514557988876467
1.500008,-0.279529255377966,-0.147759272500712,0.310472834327306
1.600009,-0.241564163463803,0.0222137627559705,-0.449731731501778
1.700009,0.318151007611693,0.336033243194494,0.529612327424463
1.800009,0.0487887494006026,-0.279766936595147,-0.188788110565758
1.90001,-0.138038514983398,-0.187071945379572,-0.41863821128817
2.00001,0.343334360038153,0.401295543043399,-0.145095490083243
2.100011,-0.531195697155315,-0.144333775850908,-0.626851710997734
2.200011,-0.2030393440773,-0.043252701610469,0.74241326487112
2.300012,0.788081671787459,-0.0572460188665879,-0.63140020246124
2.400012,-0.217997369140654,0.178195911566371,0.394313917145602
2.500013,0.180704505331812,-0.322691520432194,-0.278983687723205
2.600014,0.210907478420279,0.206721338500607,-0.742844906928819
2.700014,-0.655601024646964,0.0356281205255762,0.000456459910264329
2.800015,0.340021953331572,0.369438670716149,0.109980473816711
2.900015,0.202511009029861,-0.0917072586282444,0.0776374150575406
3.000016,-0.497896908075932,-0.714515948904635,-0.937373113673055
3.100016,-0.0250002751992969,0.0567548918432815,0.459675367321048
3.200016,0.414757076658885,-0.308537830155415,0.543981818814405
3.300017,0.418012278649588,0.193460334258586,-0.444989636161245
3.400017,-0.304990096048652,0.379815842559601,2.13920645022539
3.500018,0.139072295764019,0.763216536259375,1.48269858049525
3.600019,0.45159803309147,-0.446752343118045,-0.954020064330645
3.700019,-1.2181908368663,1.57080550841389,-3.17439206728091
3.80002,3.06859279193019,-0.00033219134246032,-1.15236203346198
3.90002,-2.98888484303334,-0.231849616698651,1.31524396009148
4.00002,2.05722776092435,-0.0450852232523287,-0.713411005329532
4.100021,-1.260283418986,1.38617668136968,-2.16235199660115
4.200022,-0.48488856873297,-1.360396449291,-2.47868443568896
4.300022,-0.19156894949003,-0.811821812377454,-0.968153433797072
4.400023,-3.31505257125899,1.66057480247872,2.53516372043214
4.500024,1.92955476886663,0.256257026413815,-0.619532506994377
4.600024,-5.13737968274595,-1.61368121728094,3.38416803530988
4.700024,-1.88309984190332,-0.290151546776119,3.00365331438152
4.800025,-2.64716814009901,-0.318666278218183,-0.000706699342037265
4.900025,-4.35977295715042,-0.812681557627018,-0.599241686873645
5.000026,-2.02161602766661,-0.955198233766797,1.76662999236297
5.099996,-2.38167848598752,-0.561217294474074,-4.27868887737344
5.199996,-2.66732960014495,-0.126843490188185,-2.4661261332551
5.299997,-1.34972328700117,-1.10496001053464,3.71741995196619
5.399998,-1.86584342145571,0.0381096222064172,-1.40844302014591
5.499998,-1.96996835820575,-0.464021377166221,-1.52437502930798
5.599999,-2.43249964015572,0.590501612470986,2.49949568873784
5.699969,-1.01775721419672,-1.11556331326137,0.407344094386954
5.8,-11.2542865868603,-4.4061145079024,-4.12995936869124
5.9,1.33552010549122,1.84873920842043,2.71646503943551
5.999986,1.13967511073165,-0.158031032568052,0.378025155580825
6.100002,0.109970407777106,-0.353659624006906,-2.00786904749232
6.200002,1.59469407836093,0.42321485555716,-0.0997665534320789
6.300002,-0.924311823629592,0.130831471882831,0.417120039906182
6.400004,-2.22297249475719,0.24917158307481,0.371674222273541
6.500004,1.57194517587115,-0.521522786701147,-0.100772370376222
6.600005,-1.81342468001324,1.22619771504439,-3.45034891603849
6.700006,-1.06106196656902,-1.05083021604189,0.917265919105761
6.800005,-0.274282801798487,1.30038887745888,2.10469849911723
6.900006,0.346352285279477,-0.812808039024685,-1.12680323172094
7.000006,-0.603909343926763,0.317067104390425,-1.84402078104346
7.100007,-1.56532327398321,1.74778805245495,0.56709020681362
7.200008,1.08681518458545,-1.5302987746663,-0.156996974224122
7.300009,-1.23568693443991,0.194927117241462,-0.224234802787621
7.400009,-0.266446034514401,1.85623657253877,-0.249110354388966
7.500009,0.146735268824089,-2.3362334719686,-0.277055895109077
7.60001,0.463932406098147,1.70490753246455,0.355007935985634
7.699912,-1.21637696797824,0.831111698057637,-0.419587297195429
7.800011,1.20356735369335,-0.162655789264566,-2.12320755928465
7.900012,-1.09691870587649,1.19027204340775,0.907289331557141
8.000012,1.36989413597648,-0.541590682685734,-0.262016960107107
8.100013,-1.43223551879208,-0.264883317399571,-1.33443882649118
8.200014,-1.66033198619571,1.85507434829337,0.103671453809568
8.300014,1.25138846068735,1.02609775822689,-0.685252323116384
8.400015,0.197825794843783,-1.23048385497834,0.210051639927492
8.500015,-1.65843198755286,2.0430125924494,-0.34107672884075
8.600017,-0.782552557339646,0.0199183379952435,-1.67816710603633
8.699882,0.734931131861465,0.77277644652681,1.39677602078253
8.799798,0.35646565809552,-0.705131128410974,-1.95428894713176
8.899528,-14.3458459824286,0.889003871711264,-3.0061708612717
9.000386,-23.8175984305512,2.44536774675153,-4.77715318596522
9.099998,-30.1256338073412,2.98023519598212,-5.89895071179311
9.199989,-34.3162701538266,3.19916683901216,-6.8729968312587
9.30002,27.8671065024619,3.13584373806968,6.48743542301708
9.400021,16.3537799238422,-0.341713077594342,4.29072102972711
9.500021,15.6611344117306,-1.30102228337152,-0.118584864805005
9.600023,12.0392835545295,-3.58656467780571,1.41578698865592
9.700023,8.1711227616388,-0.443616140112216,-0.0326120443017595
9.800024,5.05959686926849,-1.10070498503828,-0.401140272741757
9.900024,4.69980785397323,0.315291076945778,-0.293714340760369
10.000025,0.622741133100527,1.02992150335939,0.317602260443472
10.100025,2.08730020337097,-0.864585456092243,-1.08139846831725
10.200027,-0.423489585444492,2.82099691571534,0.141419006459113
10.299996,2.33230086979689,-0.0338833597108921,0.605311393260675
10.399996,-0.824038447280555,-0.0219769175597115,-1.31583403336565
10.499997,0.904708419812002,0.366083981353213,1.03162972295399
10.599999,-1.96481191268426,-0.0202129064312907,0.0221200377447857
10.699998,0.462811407757413,0.49556795635247,-3.80682426810079
10.799999,0.176874307742755,0.984131169375072,0.819809343135036
10.9,-0.792897948033942,0.896717784420271,0.574523088017397
11,-1.53792130295699,0.326849213870333,-1.61616099117566
11.1,0.176995232186051,0.293644768335001,0.735231417290941
11.200001,0.661414998691752,1.73796029544999,0.53394656308972
11.300001,-3.3462124381978,-0.456256883279535,-2.50267239511783
11.400003,0.930472432341065,1.55687789177553,-0.773172059492547
11.500003,-0.0489364963568766,0.488653508172854,0.493283555569179
11.600004,-0.200196534304097,0.976774701292845,-1.69753131491669
11.700004,-1.25110206975643,0.808411696749617,-0.189537565064262
11.800005,-0.719860267032937,-0.698054830524147,0.544105232458281
11.900005,0.923498073752212,1.34550125971527,-0.817615613453368
12.000005,-1.62418716957271,1.09881907141619,-0.58860584519054
12.100006,1.10027823236713,-1.03603915093362,0.136455275790957
12.200983,-2.29817852346344,1.2050282992298,-0.800202222472218
12.300008,2.13706213023544,0.0855975381932621,-2.73476328860128
12.400008,-0.365225354340379,-0.857370651312612,-1.99073490295441
12.500008,-2.44912711035705,0.294113927292266,-0.487081078808253
12.600009,3.09428546490723,0.258537968945245,0.450063233603805
12.70001,-0.496244936246712,-0.18158756176657,-0.0634537978426826
12.80001,-0.671212779500311,0.507618427306221,0.37701306064552
12.900011,0.140968414511664,0.121131549169447,0.258304493518668
13.000012,0.491011281657738,0.704422194635712,-1.22955892326751
13.100012,0.129557508346249,-0.318137824220159,0.129677826976836
13.200013,0.583290782834519,-0.275191018621291,-1.11753283184418
13.300013,-0.050711763628527,-0.332559177498966,0.132406903707305
13.400015,1.51897129182965,-0.831579893543012,-0.357006480841468
13.500015,0.666851172262271,-0.439641981750006,-1.58153131624069
13.600015,-1.1781813126552,-0.258811568988279,-0.304847584270759
13.700016,-0.658020990846426,1.07660721355294,1.26820032944386
13.800017,1.51772819982592,-1.8849051753204,-1.31041745975578
13.900017,0.369475749581463,-0.483420827967748,-1.24033117668629
14.000017,-0.813527713251972,-0.0990680306470002,0.895964836823592
14.100018,1.34917388863381,-1.00603727610783,-0.177018494474248
14.200018,0.670469540075767,-0.73207972866142,-1.52891597542325
14.300019,-2.52616453600782,0.265965053170698,-0.0598476118659952
14.400019,1.34309909726055,-0.588730832203442,0.994883238433218
14.500021,0.682980764847843,-2.29253428595858,-1.00470574841074
14.600021,-1.56150193629275,0.153529495986796,-1.40617733577587
14.700021,1.19098695319117,-2.27050929475191,1.34249303403877
14.800022,-0.327885259616735,-1.54362351718329,0.0484207375010732
14.900022,0.123906419815813,-0.0281754483476757,-0.627941051146309
15.000023,0.054040690978727,-0.201691624000117,-0.991242861774344
15.100023,1.29581318721821,-1.52039037872303,0.190042645084082
15.200025,-0.139325110533503,-1.46484076099676,-2.52353059934031
15.300025,-0.107221926440589,-0.706577373127573,2.35499473871701
15.400025,-2.303084715875,0.670235299879678,2.53263757075634
15.499996,1.09432991271835,-2.56322166058412,-0.966127544977932
15.599997,-0.987039520861158,-2.72168096941018,-1.9884604139137
15.699911,-0.976508087532536,-0.371094746260734,-1.21820510851514
15.799997,-0.0918584593542972,-2.25757653571864,0.817134251698691
15.899998,-1.26654551395034,-1.00376860416357,2.74426900385034
15.999999,-0.979753506436727,-3.13330406660044,1.07950655435701
16.099999,-1.9016683486536,-2.52964561218986,-2.17050315603071
16.2,-1.77373556801082,-2.4084482304194,-0.534088543269248
16.300001,-1.09803592168393,-2.75929713736529,-0.687517956194129
16.400001,-1.48418363560861,-3.13916177105956,3.04713301503191
16.500001,-2.13067065441084,-1.10268805052562,0.220981814643985
16.600002,-3.06659562718955,-4.44033267783371,0.583776681640486
16.700002,-2.20954943233202,-3.63520709802896,-1.7303889894653
16.800003,-2.42021054464673,-3.49957082528235,-1.69997918873331
16.900003,-3.3789869994833,-2.57065323813486,0.819028012390967
17.000005,-1.95019096439974,-1.42527664700722,3.74202363751141
17.100005,-3.91250678479606,-2.77294922488612,1.14999994043487
17.200005,-4.24426341441325,-1.89622117949392,0.0393054865590123
17.300006,-3.34820412495568,-1.96091157990651,1.04356674499792
17.400006,-3.79037872512977,-0.625946066418136,0.0538164379690567
17.500007,-3.49066005230275,-0.979342763472429,-0.868516008876681
17.600007,-3.75598369713947,-0.822773940119782,0.769507272657028
17.699977,-2.86995926337069,0.0877659603099095,-0.248998175541303
17.800009,-2.57860774409392,16.4245037841172,0.776760896861231
17.900009,-4.61529825124707,-6.9671041366986,-0.447084614809653
18.00001,-2.37535693164439,-1.92559159108598,-2.30229309737989
18.100011,-1.88669669988602,-1.82721831526589,-0.21279365534317
18.200011,-2.13913419183869,-1.71519603244542,0.00592203971323874
18.300012,-3.00772534375086,-0.628866639544495,-0.109067878822416
18.400012,-1.05224587805424,0.146536863877365,-0.500685371944179
18.500989,-3.22558820583964,-13.1895044727884,1.79855853453101
18.600013,1.66631818031645,4.60226566831856,0.330539743878733
18.700013,-2.36737842885997,1.87864259441161,-2.6080871071315
18.800014,-1.9222547317042,2.51641138112492,0.0537288350115861
18.900016,-1.64400572447257,0.745323145175065,-0.197867841441491
19.000016,-1.36789266651963,1.20759291794832,-2.39978387186006
19.100016,-0.700182498551661,1.29541527745339,0.0749471094307346
19.200016,-1.32098862926912,-0.381331983543191,0.262110452296898
19.300017,-1.99453508990533,0.749362114966371,-0.896748208402318
19.400017,-1.91637916596452,-0.127316692826511,-0.303234601013968
19.500994,-1.7478491198851,-0.425531012511184,0.415504407243555
19.600019,-1.99919822184629,-0.910387331385939,-0.488072234417576
19.700019,-2.8062973150596,-1.26134530918357,-1.12293150728135
19.80002,-2.51241512563387,-0.997070782252875,0.347175244572264
19.900021,-1.88481504973831,-1.48191275273807,0.488172101117947
20.000021,-3.44105831725293,-1.17181731837616,-0.983624283883337
20.100021,-3.63107803243091,-1.7137475976096,0.439575585731357
20.200022,-3.1811187894143,-1.78366046678547,0.972476308756939
20.300024,-4.47933871241781,0.182495232171544,-0.99753726322613
20.400024,-4.91562467381465,-1.95205925395364,2.61515503781957
20.500024,-4.37324703781329,-1.17093936338212,0.572850262780953
20.600024,-4.5432511288931,-1.53985715366224,2.69465863939223
20.699965,-6.8201224276044,-1.19557749317449,0.9214782685391
20.799995,-3.93906999319697,-3.43416753467666,-0.851541807667091
20.899996,-4.51099252952982,-0.696844727753629,1.48335324950307
20.999996,-4.42658159263266,-0.0725121171042448,0.859856845688264
21.099997,-4.09217512527233,-1.50536912803148,-2.43024072979732
21.199998,-2.82832403063043,-1.10889882321625,-0.532854551770725
21.299998,-4.91926409663668,-1.0744088837887,1.81401908845867
21.399999,-2.35935607978498,0.101690208152272,-1.54014464811756
21.499999,-1.9847211462959,-2.59459577295685,1.69854903366187
21.6,-4.33419828282036,1.04260878609998,-0.436426159184657
21.700001,-1.34725348399635,-1.92551827239765,-2.22716719503917
21.800001,-1.98367310133415,-0.530524637593682,-0.975046761673086
21.900001,-3.26680584695815,-0.599279255252054,-0.645447605219702
22.000002,-2.54954287384226,-0.811372382430995,1.61841054963173
22.100003,-1.71742717312603,1.06951998163392,-1.90175977930141
22.200003,-1.91087739021923,-1.18320010144279,-1.53775633411755
22.300005,-4.07086780077229,-0.79628357483048,-1.73482145240563
22.400004,-0.897550770871516,-0.789481783115459,-3.4925780388026
22.500005,-3.820234694775,0.506548252073271,2.21958945101741
22.600006,-3.01600052309854,0.256405945734652,0.553299581984974
22.700006,-1.11337411836903,1.83761730693429,-1.03505236340219
22.800007,-2.6397587025914,0.210320190259579,-1.21117072799981
22.900008,-3.25611906506013,-0.0793144289288923,-2.23618821456577
23.000984,-1.90669065880886,0.391765018857505,-1.11491859590387
23.100008,-1.08050569250007,1.11130082454572,-0.3636078576844
23.20001,-0.815027523612038,2.06780517721155,-0.450812668698825
23.30001,-1.39247837077886,0.384258441567302,-0.352009413562292
23.40001,-3.16794547583638,2.01862801610038,-0.418056021283609
23.500011,-1.58785783455679,1.70839237522658,-0.211881899707955
23.600012,-1.9938895095833,-0.385332126214941,1.16888364432004
23.700012,-2.412868246227,1.31796482271013,-1.83950894112825
23.800013,-0.946574875253496,1.44401049923103,-2.70740010288371
23.900013,-2.10320008047289,1.25330687148959,-1.03476178561494
24.000014,-1.1497214516999,0.484982716243834,-0.939670303052073
24.100014,-1.4460055145458,0.175413715203918,-0.327012531440252
24.200015,-3.15286372720148,-2.20387938787618,0.503755333683595
24.300016,-3.90608545903882,0.553825220395183,1.08509268282952
24.400016,0.455654362066397,6.00054729197278,-3.52798984351837
24.500017,-0.00925394504891208,-1.93469517771232,-2.17569367712728
24.600018,-1.71503523870659,-0.765048808615175,0.211546644545114
24.700018,-1.14378208445132,2.67876196147623,-1.20919974507907
24.800019,-0.755699153879389,-0.104763871177278,-0.0678983720661401
24.900019,-2.22880384914178,1.90685517395657,-4.97802017983412
25.00002,0.774160063294631,1.14581029877733,-3.81181714608765
25.10002,1.63116484650013,-2.66271742225995,0.84313418749612
25.200021,-2.07471478737122,-0.276453219090053,2.80191638785906
25.300021,-1.9446014754951,0.761546626299913,2.41648769665047
25.400022,-0.472949197743164,-0.0543763643125019,0.614911934093362
25.500022,-2.74314713309182,0.105797663499863,-0.55577779639977
25.600024,-0.0227597031397888,-1.17354208910106,-0.301282784363114
25.700024,-1.23581008468384,-0.757957562217338,-0.979859935299354
25.800024,1.15338640414842,-1.03356182866808,0.0475674798525652
25.900025,-1.53658149418054,-0.909452672987294,1.55338657662227
26.000026,-1.35396111576919,-1.24067101946352,-0.807998935103406
26.099995,1.42273125428062,-2.25640042933666,-2.32373332207857
26.199996,-1.1278748424856,-2.49048417314498,0.373536634445749
26.299997,-1.54332913200958,-2.07281416341798,1.95601430585562
26.399997,-2.05096535174663,-3.31668122715345,3.21155599982762
26.499998,-1.59865233026381,-4.56940708331908,1.85204359416454
26.599999,-3.75891298239615,-5.99351366299331,3.39636375584607
26.7,-3.11374139636964,-3.14734482081924,2.55340180432523
26.800977,-2.61193529719088,-5.28627648716087,4.45134926574568
26.9,-4.63896937655073,-5.14893038238934,4.22744117463228
27.000002,-4.10186945847161,-5.70822061281057,3.64225951807927
27.100003,-5.50200266124221,-5.45851167126136,5.57197228223935
27.200002,-5.82021525558565,-5.1059515935874,6.13104990184635
27.300003,-6.54664353317319,-6.59423531587963,4.62462003762691
27.400004,-5.02418255226869,-6.16539863575219,5.01059450077765
27.500004,-6.74797692498046,-5.54534014821527,3.59886728598404
27.600005,-4.64883169839228,-7.2251528260142,2.92430009784956
27.700005,-6.0054164960686,-7.578279563784,4.2964959522554
27.800006,-1.10047564527969,-4.41570715576038,3.89357864791327
27.900007,-5.55634502999095,-5.02709084644346,5.95012338352184
28.000008,0.451383407089223,-8.76156193572703,3.19202180605365
28.100008,-2.82156032079859,-6.29720445852341,4.35947191469065
28.200008,-0.65861799952153,-8.57059739623028,5.24627089278057
28.300009,-0.734824054620637,-6.72099301464883,2.67729128077921
28.40001,-3.51795588373349,-7.54433929068079,7.73185507434141
28.50001,0.241764320523223,-4.94999377470367,0.902032371139046
28.600011,0.00255788645684651,-9.25160209516273,1.69056387583283
28.700012,-2.47570144863452,-3.96700829993594,2.00512605893192
28.800012,-1.61130013608126,-5.58505329409858,5.3034878639663
28.900013,1.38929556668683,-4.84837682958686,0.874107550770455
29.000013,-0.708749888954911,-5.07879095248279,-0.301547791083364
29.100014,-2.74355441121972,-5.97395504996564,2.97292962992207
29.200014,-0.749624554576652,-2.11602020122981,0.113366520340727
29.300015,-2.24790199462422,-4.41052173757642,1.84386013551072
29.400015,-1.59037414520209,-2.34781624896125,-0.0292435373490552
29.500016,-4.33745950018037,-2.99235499111534,0.78723475495394
29.600016,-1.60632464456697,-2.37906958555276,0.507122952786043
29.700017,-2.30511148982454,-2.81518368813395,0.006129687187993
29.800017,-3.30720084821346,-1.42302394266884,-0.0800850539982086
29.900018,-3.35056907478086,-1.8953861634181,2.04238303403604
30.000019,-5.01390398115407,-2.45320285368568,-0.208621784152475
30.10002,-2.85480557847399,-1.38908601656195,-1.1446105447401
30.20002,-5.08118841622365,-2.49249393333725,-1.08288667501214
30.30002,-2.95134281779784,-2.4540115440755,2.44298648124189
30.400021,-6.01003612030785,-1.45942012779475,-0.456064393627957
30.500021,-4.22003899503348,1.6730219022079,-1.18621777314351
30.600023,-4.01548708559625,-2.40360334428532,4.1527714187994
30.700023,-6.47502692020536,0.804486865958364,-0.443781180021088
30.800024,-2.3423007934791,-1.08386153079295,-3.20828831685507
30.900024,-7.07889296643146,0.0891959180058182,1.05264818352551
31.000024,-2.94897092738742,1.89258175013758,-0.971284769146237
31.100024,-4.18648985707435,-2.77844125965245,-2.68443558683708
31.200025,-3.51518222683819,1.40877205338315,-1.85263887341326
31.300026,-5.9525816783458,1.08576053548829,1.17462834183657
31.399996,-2.56310662317005,2.6865726492716,-0.751605496803288
31.499996,-3.33619464976968,-0.684732122795744,-1.81725144405269
31.599996,-3.66786161718347,1.79939158899596,-1.77913933597941
31.69991,-4.04113985141189,1.81370125951334,0.383410789825157
31.799998,-2.37456351557182,-0.38669805805043,-0.217775911290969
31.899999,-1.14703518730493,0.717360390648309,-4.39409900750877
31.999999,-1.71310470469841,-0.193361052079332,-2.25167783670021
32.1,-1.428311287346,0.79945901195969,1.50074709224323
32.2,-1.73100698793647,-0.258779191142608,1.8578075480387
32.3,1.26123483746334,-1.69061502286848,-0.345472021936291
32.400001,-0.783359073134164,-0.220069101882087,0.437455383270354
32.500978,31.3426425399492,-8.38614930535917,13.7120617317917
32.600003,-9.74487527963164,1.74344180033296,2.76010787853821
32.700003,-5.5190112945353,4.17867301646159,-5.07606339841739
32.800004,-1.84943227690281,2.2078854095143,-4.58490384394873
32.900004,-2.74629508063489,-0.775282504211721,0.594660595387873
33.000004,-1.82309469676361,1.97901767955783,0.941140279568321
33.100005,-2.08339686695602,-1.01439874061523,-2.789749017687
33.200005,-4.62693191578048,0.342971651207739,-0.766989564203896
33.300006,-6.56097269595136,0.604784886403313,1.46921965479353
33.400007,-6.17167814571542,2.84669499190096,1.99650608995073
33.500007,-7.8726047769243,4.26904880784613,0.700402364798892
33.600007,-6.267165696395,7.23813313119131,2.09144301929271
33.700008,-3.46254799554698,7.68932698484639,3.7816157205674
33.800009,-4.0627741972817,8.97613490258497,4.20661843091632
33.900009,-1.60330549609345,11.3348410079376,2.58248056084197
34.00001,-2.66927810070914,8.77217992160393,2.1409228162904
34.10001,-0.611124742965417,8.93808549274956,2.7628246347353
34.200011,-0.895465714068435,7.96604625759786,2.05873099497252
34.300012,0.260281626562996,7.98444543756281,0.591929435009175
34.400012,-2.45912710191713,5.77674092903189,3.51049576770392
34.500014,-0.543927190085025,8.25660878138798,-0.138008610396677
34.600013,-1.47769808526121,4.83960163411915,0.48291137578962
34.700014,-2.09601522320363,3.05187065393809,0.306221928795215
34.800015,-1.61289715924451,6.15533533178212,0.233842210186488
34.900015,-3.24714538364571,2.90140405367211,0.714106192660417
35.000016,-1.16610477220209,3.84118864203767,-0.417935429916064
35.100017,-3.74591892831154,3.23009976154638,0.00901572232298209
35.200016,-1.51946401038723,1.96817929529449,0.99913682966086
35.300017,-3.30263782377806,3.94907326890277,1.05142800901421
35.400018,-2.2310134864616,3.7427898708167,-1.18788599714505
35.500018,-2.97206068954376,2.83749897880838,0.41374688660077
35.60002,-2.38273839408874,4.69546090518112,1.63602929162328
35.70002,-3.52984271103654,1.53482128718016,1.28605669666901
35.80002,-4.11787706203067,4.95815603362883,0.132381449921233
35.90002,-3.87023941800178,1.90579887956691,0.250898020717348
36.000021,-3.47376940870223,2.3589142636938,0.830159869258797
36.100021,-4.65922887658016,4.55695391064852,0.269901781846904
36.200022,-3.54342700469651,2.15255121402365,0.922855849194532
36.300023,-3.97650705077938,1.8874854470424,0.0268243241427659
36.400023,-5.15446410297315,2.30306184600017,-0.355494303054499
36.500024,-4.30524988285914,1.28336796398331,0.646156182144675
36.600971,-3.73353036997133,0.902983838515931,-0.557617335387806
36.700025,-4.23116655895432,0.832153780906921,0.113584259649661
36.800026,-4.38647350484501,-0.534343195035345,-0.320634678451941
36.899996,-3.81803222807585,1.0738472546078,0.933164130646334
36.999996,-4.91291497877752,0.456157388147406,-0.293163358177273
37.099997,-2.85636345278131,0.280788929111748,-0.195776311022432
37.199997,-2.52976527060025,-0.33242055734306,-0.948747688800061
37.299998,-2.77594708790338,1.50575991154949,-0.826843359711273
37.399999,-5.14407014776022,0.30263256898741,0.623118066139532
37.499999,-2.62777107313882,1.2436717268174,1.44552086266
37.6,-3.92974130954173,0.545478433537894,1.13819329258468
37.7,-5.72686289689991,1.20979783800104,2.60267922596671
37.800001,-7.8059190071749,2.31358985844911,1.09694708070856
37.900002,-3.29155830182301,-0.0745423781601593,-2.06851680106795
38.000002,-6.12647639031665,3.28814976522337,-1.10870632929546
38.100003,-4.7223953727041,1.54850725689602,-0.98710170782118
38.200003,-6.72540471023394,1.11521379538102,0.729910908046579
38.300004,-4.55586421908653,2.62632095453866,0.512288729860305
38.400004,-1.63726336604956,2.4796296768528,-4.38756036938394
38.500004,-5.00008451667272,-1.30656028000736,-2.31767217954824
38.600005,-4.12366627391538,1.91144801111351,-1.88538690730888
38.700006,0.521328374270536,0.932916295976998,-2.19007269815651
38.800006,-1.51100006292479,1.60682405705525,-2.19458695085788
38.900007,-3.77154276688347,-0.850032110386596,1.00980533101778
39.000984,-2.95941480077007,0.839868871836023,-0.139612604155935
39.100008,-3.58932727441714,1.90799322173532,-0.92203321506167
39.200009,-0.920884318512987,0.0734241566592613,0.573753054457585
39.300009,-3.07429269809559,1.5173267247339,-3.76339716306494
39.40001,-0.615910764328193,0.175206744738952,-1.61238414276362
39.500011,-0.71452965963515,-0.225600630459274,-3.45619177540426
39.600011,0.382213916676585,1.83790607989622,-2.41888689928965
39.700012,1.40917102429634,-0.302363304732271,-0.555525970881126
39.800012,0.0373790619595642,-0.953673427029787,1.10079244991951
39.900012,-0.132186582497447,0.601026258381871,5.31434150081054
40.000013,-0.924841621868576,-2.12045077984726,2.19613536683494
40.100013,-2.46112160375505,-0.901001557168131,1.31393098535532
40.200014,0.904503301463847,-3.28087497921664,3.28971299197167
40.300015,0.357511845277603,-5.98327947293825,2.10473515418767
40.400015,-0.105572612887005,-4.53679164530842,2.23711864608723
40.500016,0.394312356565769,-5.34813674680721,1.37424460932712
40.600017,-0.929339082473325,-5.62703596189725,2.42035025149887
40.700017,0.146058752083685,-4.62668718134686,1.37803697241936
40.800017,1.28902365981177,-4.59334697190097,1.89203293476065
40.900018,-0.702075812144136,-4.31288758883141,3.14122998683176
41.000019,-0.0863948528766842,-1.40922540448571,1.59667203346956
41.10002,1.0224843789245,-6.989519520685,0.357113739991467
41.20002,-0.698858542192756,-4.56178102222739,1.28671533513351
41.30002,-2.46500820509134,-2.66147920753838,5.95695398918635
41.400021,-1.44002808780326,-5.03759184148821,0.621801898968451
41.500021,-2.65252311411724,-6.38466790294947,3.69671379746937
41.600022,-5.13709138478073,-4.97475501719836,4.18080562183272
41.700023,-4.44825837505517,-8.12323459295777,2.44127795888246
41.820383,-3.68000946099646,-5.90492875066732,3.18976788068864
41.900024,-6.04996159747393,-4.59768095218558,3.28940621079159
42.000024,-2.4633061942094,-6.22720353877604,3.33797885277617
42.100025,-5.11337534928359,-3.98847038856122,0.186090398909032
42.200027,-5.12388371295062,-6.97184277482942,2.83189627882994
42.299995,-4.65049136892745,-3.43932518144595,3.80963928857664
42.399997,-4.46678020918221,-6.17516851067519,4.39768205500702
42.499997,-3.72614677045004,-4.84938187772542,4.02580111820683
42.599998,-3.24283361157413,-8.01747573223816,4.34003193183189
42.699998,-4.51082379857751,-8.2005221231669,6.73790601555054
42.799998,-2.73861234484495,-5.47987252076105,2.60937053905511
42.899999,-2.62478072160478,-7.39507286507196,2.38588791130992
43,-3.33206082139874,-6.49755353477663,5.46919206637705
43.1,-1.47403905827613,-5.92294624352336,6.4994502483549
43.200002,0.0774748913415246,-8.12769275863472,3.06248886443021
43.300001,-1.41667868479302,-7.33211915078727,0.407644613429142
43.400003,-1.67357096824594,-7.08984680633642,3.38402112698288
43.500002,-0.649778418360582,-4.81103780089757,0.889908853004025
43.600004,-3.49016792855214,-6.33666978870249,3.03260345554868
43.700004,-0.502315764069226,-5.52845420645145,1.55401731527008
43.800004,-4.34312584393834,-6.25938777243827,3.82870620817023
43.900004,-3.96164626341521,-2.99874450843783,4.55944606225988
44.000005,-3.40156667994623,-3.1385505400342,0.000498296075204685
44.100006,-5.29663689037558,-3.57828747499144,-0.473934400120646
44.200007,-3.31795024411141,-1.30567432444307,-0.285683447123484
44.300007,-5.96146523743593,-1.87364502914429,-0.247657250145682
44.400007,-3.38334158483213,-1.33273230970098,2.77399546403693
44.500009,-4.16304082181566,1.19958267997792,-1.02672647859305
44.60001,-3.48701768612816,-1.30291722402931,-2.35368365844404
44.700009,-4.86147064751395,0.2431551921346,0.452517531646741
44.800011,-5.02935602924492,-0.414616423736369,-2.759616043403
44.900011,-3.15697821045502,-1.65804074865037,-1.91540549018471
45.000011,-6.48700421198012,-0.145783112883162,4.83763101593719
45.100011,-4.39839499357175,1.85090031409972,-1.12088941369455
45.200012,-5.56028595900882,-3.03670105249443,-1.46035253988263
45.300013,-3.7593235494682,-0.501954069542792,0.0301278952499611
45.400013,-4.21694540162056,-0.179995775252366,0.273699073168154
45.500014,-3.66819195133855,-1.82173788126657,-4.80401771637117
45.600015,-4.60031065102442,-2.1098812001245,0.324887706978362
45.700016,-3.35548924641177,1.26906502628677,-1.30903110707827
45.800016,-1.75833298414319,-2.00524317731684,-1.49699594452733
45.900017,-4.01296951520459,-0.985752444801641,1.99998011303101
46.000017,-2.20723675035083,0.135536946106254,0.410848006998622
46.100017,-2.98633411679947,-1.17249201686776,0.460184621466295
46.200019,-1.52471479276736,-1.62822929188367,-3.89698548518356
46.300995,-1.45024455832734,-1.01179300125937,-3.4655414657757
46.40002,-3.20816077570561,1.14851736748352,1.2665922978113
46.50002,0.240504675682265,-0.687984079155598,3.32713325961506
46.600021,-2.04271503129992,-0.442121554290423,-1.91818164490908
46.700021,-1.92290290248127,0.329214574537299,-1.77861938375749
46.800021,0.173153811322636,0.184189965803823,-0.956438983039823
46.900022,-0.172146256181855,-1.12345591753202,0.440089998086731
47.000023,-1.1193028428576,-0.0838672382419221,1.63002580140457
47.100024,1.02035535903278,-0.162629744676594,-0.0688121151158403
47.200024,1.58557648822798,-0.128327668198005,-0.668843752764589
47.300025,1.19734913251891,-0.540071707100532,-0.0575803790007523
47.400025,2.14473449319258,-0.613592856004859,-0.653991596879235
47.500026,1.59637844255354,-0.404477025326906,0.0416982871321157
47.599996,1.26700101954489,-0.30782348225862,2.15878379589167
47.699996,1.14844641674711,-1.06411017146439,1.07937802986579
47.799997,3.76465957052534,-1.66781108889425,-2.61513343064814
47.899997,-0.297390790174751,0.0118897588213926,-1.11204156441529
47.999998,2.47053599150352,-2.4176668990161,1.24877158945002
48.099999,-0.0321402862621958,-0.948023742225355,1.48969388102179
48.2,-0.529400328591213,0.0455934890050527,2.00243978102783
48.3,-2.45526187410435,-3.08899985002072,0.190801427667734
48.4,-1.27846885922806,1.01195049443175,1.87144260229122
48.500001,-4.87324601016836,-1.49412393914679,0.467550571270902
48.600002,-3.86601914881706,3.5253624367037,0.482253683711729
48.700002,-6.91294818742005,2.11896730955421,5.15808558673324
48.800003,-9.4783285482356,5.21149236744558,0.276569550183729
48.900004,-5.28936610207847,5.17187410203165,-0.999867002249672
49.000005,-7.12364907647615,7.31712833067256,0.234296657137226
49.100005,-4.58003586023313,6.51834637125349,1.68518981401806
49.200005,-6.57901655403855,8.55992203872756,0.0659256714155996
49.300006,-3.57702716464092,7.85888323808893,0.397290183361252
49.400007,-4.01439311140987,5.99046018429885,1.40145093466856
49.500007,-3.57582340834659,7.82383301763232,1.03751826742422
49.600008,-2.50325893473874,6.24391476768731,0.934264237180901
49.700008,-2.25824071359296,6.35323490733477,0.138315109390614
49.800009,-3.49867417745413,6.46519423591478,1.57031426765728
49.90001,-3.11566081576919,5.99407199390507,2.45368783900493
50.000011,-0.418398190958,5.16862052517617,0.906857910789676
50.100011,-3.16562599096463,6.88866446413101,-0.0696922831646369
50.200012,-2.92441069488895,4.48385347733354,3.17141867498202
50.300012,-2.58568825861422,7.76434567119395,-3.77151454065853
50.400013,-2.530407784245,1.71368784182423,0.700681103964566
50.500013,-2.42584563013001,4.91645590467259,2.70452806299132
50.600015,-2.42199923344197,3.92650096478191,-0.0462268829803678
50.700014,-3.23842745205555,3.11374843714868,1.3843934107405
50.800015,-3.03615071283977,5.33649398100989,-0.763098316312193
50.900016,-1.71817265539123,1.95476985281922,1.4151867661817
51.000016,-4.41581789067364,4.46642376763634,0.352412074655184
51.100994,-1.95794022800197,3.42435713733805,0.0528218943268326
51.200018,-4.62655199288652,4.54441965156586,1.74472756774242
51.300018,-1.48889512411461,1.77521396161674,-1.88903857933585
51.400019,-3.3503147731293,3.22378454902186,-0.746507189761153
51.500019,-4.17626668125298,2.39432245328519,-1.15679385387449
51.60002,-1.84423967530348,1.44690854293258,-0.461564604547576
51.70002,-4.77519402762522,1.29515372370949,1.56123272519666
51.800021,-1.79730201183557,1.24213248624286,-1.40678306548916
51.900021,-2.3849220465794,0.549126084230638,-0.313897559591402
52.000022,-4.63642095915937,0.798394851359572,1.36909694277585
52.100023,-1.94476095329386,-0.000703727925106534,0.00885176587604608
52.200023,-2.18985068648501,-0.725109985254028,0.797027421306888
52.300024,-2.83922536028724,0.0590448457978857,1.46516675861841
52.400025,-2.5585454203732,-0.999676131279142,-3.04195055812369
52.500025,-1.70930017479541,-0.201014612564224,-0.739331581372337
52.600025,-2.40115591930748,-0.159018805995486,0.628522541518649
52.699995,-4.35692646201363,-0.75826428544364,0.895417379049667
52.799996,-1.82274151971836,-0.18692208313367,-1.37847036824528
52.899998,-5.39717431972186,0.396630170895801,1.93657523531211
52.999997,-1.71192954456199,1.09734307100296,-5.05582575839083
53.099998,-3.50096470474218,-1.6458170032883,0.875850164702622
53.199999,-7.42070802792429,-0.488894484990806,6.46050667290936
53.3,-2.74901402164391,-0.239308032650694,-0.00268526934934687
53.4,-2.50350811720485,-0.0812372521850528,-3.45644346969248
53.500001,-2.29404652298238,1.60657494707007,-3.82654068948082
53.600978,-2.07777757232731,-0.572160150085991,-0.80927240292336
53.700002,-2.60142465592807,-0.783987054027477,1.44942911107409
53.800002,-1.5080634618494,0.291388240990238,-0.836729993061888
53.900003,-1.94689203517526,-0.496919384871584,0.0564407473815103
54.000003,-1.65556616090759,0.365756473622505,-2.50668904835434
54.100004,-0.840127422581189,-0.0741699576119166,-0.389711508543077
54.200005,-1.29648521759141,-1.12872746637432,-0.994788454528432
54.300005,-2.48486607564589,0.0358141792389273,-2.5128205069925
54.400005,0.229287699616999,-0.235032415831618,-1.11202636883062
54.500006,-0.741022968582051,0.475568767824462,-1.15680370041454
54.600007,0.258234885827277,0.127399749151065,-0.325873510393324
54.700008,-1.84289885482067,0.248396977777449,0.450331896284434
54.800008,-1.186414285343,-0.29194508673493,-0.370622110705076
54.900009,0.294200545772616,-0.42474747171543,-1.24863463910641
55.000009,-1.01869155169406,0.125934021152672,0.103610671175006
55.100011,0.839512874466868,0.115161255779399,-0.474376070641226
55.20001,0.0267265688036409,-0.686855495933275,0.701009342178925
55.300012,-0.228048279724657,-0.214407564829743,-0.584146166621779
55.400012,-0.328401036638555,0.684510109922394,0.126408605100623
55.500012,-0.77291133026553,-0.136329203598312,1.4515815422412
55.600012,0.95088815867034,-0.258427331708953,0.0848713409094091
55.700013,-0.694510822668256,-0.618904089813179,-0.539895636132523
55.800014,-0.934415337054183,-3.38340150050284,1.92581420373006
55.900014,-2.05292698569795,-1.59981569079388,2.74555052034147
56.000015,0.592616029664952,-2.9843645059379,-2.15204980784567
56.100015,-0.98910579624481,-5.27489597530365,-1.12314202109112
56.200016,-1.15475447863435,-3.34359723175836,2.33026779251213
56.300017,0.978493126523428,-3.14144236458962,2.73477885421033
56.400017,-2.89228035884989,-4.7812063628638,0.973191348228227
56.500017,0.191933487417014,-4.67361711467479,1.57972085097736
56.600019,-0.915902350276692,-2.75507111802899,2.60719953967111
56.700019,0.504527950412263,-5.68733443346374,0.247179379306783
56.80002,-1.5684539128231,-2.12540150066551,4.58038821092372
56.900019,1.02854096453638,-4.48262351775574,2.04172435924197
57.00002,-1.30942752902392,-4.13913436934692,0.507606741894362
57.100021,-1.39699840040527,-4.01130875539436,3.42405400140174
57.200022,0.994302361513189,-4.32375482042354,-1.90214973983581
57.300022,-1.26128030485894,-2.35449757785921,3.13316705932189
57.400022,-1.94778750316352,-4.55508775257727,3.41007768432142
57.500023,-1.5105821278119,-3.87084041579736,0.366781615069138
57.600024,-1.09794342573911,-4.88791111769644,1.92282074689342
57.700025,-1.36503265511234,-3.89594369373993,2.02978796757894
57.800024,-2.14695198160406,-3.72207102287331,2.15575320802963
57.900025,-3.82263387006418,-1.60924718274706,5.73260719621726
58.000027,-1.41616539617128,-8.22720306282348,0.597967795736681
58.099996,-2.31788359069369,-1.53720308476873,4.05636508951234
58.199996,-3.30318396911426,-7.20193083311788,0.151473582604831
58.299997,-2.57309343637796,-5.51553138967043,4.22296311497825
58.399997,-3.18564690934533,-3.13070322861851,4.61165266071887
58.499999,-1.94299983079592,-4.60047042829434,2.52978305021705
58.6,-2.16469040989172,-7.84106093769762,3.7255359538616
58.7,-0.216275230419626,-3.59001389717578,0.160144342959403
58.8,-1.96909031612873,-7.94878409747706,3.47693841021292
58.900001,-0.809170932619518,-5.58459390863097,2.8333836205754
59.000001,-0.322506012539738,-6.95963134338816,3.44795252052521
59.100001,1.71901875434256,-6.34945909751739,2.94757724203314
59.200002,-0.119159065847474,-5.56420916564265,-3.84886354133914
59.300003,1.72166879778545,-7.11619432755691,1.62854024020526
59.400004,0.266123576696428,-4.15818123987737,7.39488379366042
59.500004,0.633512318300038,-3.47995184516484,3.72720411843047
59.600004,0.97640515917597,-5.54318481558837,0.877955025387579
59.700005,2.05036070304829,-7.55363985732812,2.92810789598945
59.800005,-0.606839027413181,-3.25389834564564,-1.29990620002441
59.900007,4.47730921779075,-5.25757144708579,0.453391508032419
60.000006,-2.26592762639542,-5.00431919224042,2.94977035119669
60.100007,1.36291645577761,-2.43210639474514,1.5954513409453
60.200008,2.09754269372517,-4.87327007447474,-0.942202203603373
60.300008,-0.451345537596031,-4.06819763998184,-0.786348043373211
60.400009,-0.30802606847556,-2.02267495863618,-1.79756926294565
60.500009,-1.4466422977667,-4.52316948843235,0.511455396041697
60.600986,13.3865461639526,7.751186288169,-0.00409607150677949
60.700011,-6.39974783497024,-3.6787534372395,0.265869224274795
60.800012,-5.44276385964146,-3.9837111724579,-0.471337897430006
60.900012,-3.58214828517423,3.33089098813215,-1.01261543762497
60.999982,-1.68036041956401,-1.95719410387022,-3.50176521287343
61.100013,-17.0779160652236,0.192528058771256,-4.54178614944324
61.200013,2.87221160652443,3.27565782820383,0.313193204829071
61.300014,3.03750493438247,-0.416181047794995,-1.52052026968037
61.400015,0.774312934908505,0.799887244719783,-1.66834084779878
61.500015,-1.60608983627552,1.5449385488755,2.63119148738615
61.600015,2.12488954195492,-0.241308685402103,0.768430392712889
61.700016,-2.66873067436016,2.08736131212343,-1.31047703741021
61.800016,-2.06229449305999,0.395506174070536,-2.20706311737292
61.900017,-0.203701831833214,2.31680067651681,1.8358991877944
62.000019,-1.44915431775468,-0.0809378845671915,1.96748304305664
62.100019,-4.67261650715456,0.660719729211199,2.87426306696555
62.200019,-2.28837941780132,3.05664523458116,0.350549236456216
62.30002,-2.5585485453125,-0.14502838263813,-0.0885884387429087
62.40002,-2.95377126357547,1.4560102568226,-0.84693160944825
62.50002,-2.46693379420151,1.78457315849074,-1.82289597582331
62.600021,-1.85453542554906,-0.298929516524582,-0.577993521968739
62.700021,-0.79614218931117,0.251934991560312,-1.24091545972245
62.800022,-1.86766853985902,0.666576970792399,-1.882245943297
62.900023,-2.10259754429878,0.441374651869916,0.0594014269451235
63.000023,-1.03343284259024,0.0296324545574382,-0.199012584807806
63.100024,-1.03667575960357,0.0873049753189464,-0.505038828959169
63.200025,-0.673046571109012,-0.391662908801143,0.0933345859898063
63.300025,-0.0217307039756426,-0.756087508491723,0.274157896350499
63.400025,-1.95369827406911,0.406146029592923,-1.01291135012986
63.499995,0.731625364158389,0.740030565759591,0.108027718799193
63.599996,0.537326600679602,-1.64929771276819,0.351427422785257
63.699996,0.74484549405059,0.00951292399459436,-1.67699894104177
63.799997,1.06423495498084,-0.383760479387806,-3.26588198379538
63.899998,-2.05497425545582,0.312782829065518,-0.767184489316918
63.999999,2.47193503645864,0.607780102297642,2.38212801694357
64.099999,1.9586736921936,-1.86293950794903,-2.35522896696319
64.2,-3.11262014521717,2.33832818723553,-2.6266341824427
64.3,1.72607301596601,-1.29509995049956,3.0506992695332
64.400001,2.06010276163983,-0.792989831000495,0.461619828661984
64.500001,-0.645697081225608,0.0180822126416553,-3.33458528239897
64.600002,0.714414388531283,-0.366686919488154,0.494589327061869
64.700002,0.520053625122854,-0.201319920283913,1.04220125583008
64.800003,0.069531384874469,0.490227193664357,-0.1461755490154
64.900003,0.530141795633577,-1.14587295836747,-1.16608728341326
65.000004,0.218709187516127,-2.20396218425678,-0.372190426503969
65.100004,-0.299729671993504,0.805094969595842,0.597491042083131
65.200005,0.368586797696133,0.0931216234439828,1.16090679344771
65.300005,0.212037512711613,-0.862767381540032,1.56830193480337
65.400006,1.77695909437469,-1.03302243953466,-0.51921043549259
65.500006,0.74577125365648,-0.593636839723165,-0.664955017446354
65.600007,-0.184710721647878,2.50071913910049,0.118620481255205
65.700008,2.76413380206425,-0.0619822529239635,0.247719009742548
65.800008,0.19605200172712,0.772719869405646,0.333248972370235
65.900009,1.63104371823433,-1.50886780853398,0.888525830806208
66.000009,0.900356036576128,-0.432503843985165,-1.10165918255054
66.10001,1.46676525618585,-1.35227317957819,-0.166993259081305
66.20001,1.08710521409133,0.969267428269792,0.398186418971019
66.300011,2.02065454534707,-0.0558889583383892,-0.374930186917736
66.400011,1.14503774577048,-0.745809270742637,-1.29073091358879
66.500012,0.772080521050142,-0.279265606125958,0.982592888471024
66.600013,2.05167514664744,-0.533668362345002,1.64818108904725
66.700014,1.07642646566556,-2.35064336594648,0.1633199373013
66.800014,0.0626083785144127,0.578271224901382,-0.504339605379958
66.900015,1.71035510675352,-1.26547500047008,-3.56732023985326
66.999985,1.46173414103549,-0.432159414867181,2.23370558757505
67.100016,0.857404933029652,-0.149924424039397,-0.946333564040509
67.200016,1.11648885270683,-0.495223481364982,-0.0561574750277589
67.300017,-0.367183368644923,0.837315061142695,5.0163650521356
67.400018,1.65459301564321,-2.00213302798972,-3.12659264269593
67.500019,1.21635044419297,-0.509988674037274,-2.28479407281185
67.600019,-1.2974057968029,0.0294159079309225,4.2090308769635
67.70002,1.38375841609829,-1.77363867345472,-0.638159448909574
67.80002,0.476465481015923,-1.85216916889792,-2.02336225689481
67.900021,-0.214241103613409,-2.1592305823433,-0.957758612503783
68.000021,1.16056693034773,-1.26468645202059,-0.973084075440081
68.100021,-0.347015565457531,-0.495496318118456,3.9261408697186
68.200022,-0.213349891877373,-3.839504253981,-2.57882198020901
68.300023,-0.548809945883532,-1.40700052101244,-0.527954733153734
68.400023,-0.0235704417692999,-0.140980555875878,0.995096631064359
68.500024,-1.50396903609837,-4.1598502239739,-2.03463404456595
68.600024,0.401289062697035,-1.37757233718714,0.108232495840255
68.700025,-3.279961443666,-1.3738414182123,0.433673302307583
68.800026,-0.0133553616747264,-3.33545602759728,0.7899210195819
68.899996,-2.55276727394166,-1.65167525585929,-1.68098595303968
68.999996,-1.69376794251094,-1.62133482561209,-0.590097496528711
69.099997,-2.1842117007537,-1.98911842505635,0.681139947993279
69.199997,-1.4322047585266,-3.17797461500249,0.085498968367774
69.299998,-3.96670326603458,0.173721416448185,-1.16393108791414
69.399998,-0.887376595413379,-2.51680548934009,1.68105235707924
69.499999,-1.93145428117636,-1.27035364581116,-2.81194335731404
69.6,-3.84005595336597,-0.870984739745151,1.43111847488752
69.7,0.277007302516602,0.0535447582423036,0.156945925292034
69.800001,-3.61575465175367,-1.70292071344584,-0.889085094248061
69.900001,-2.4393566340553,-0.485163210855341,-0.513613445453287
70.000002,-0.801965346797486,0.183867842055597,1.32135645771532
70.100003,-2.02140050543612,-0.166686372262139,-2.44829325642508
70.200003,-1.46556625739554,-1.52190572417925,0.175280649282524
70.300004,-2.42480836672457,1.07797430697485,1.20835800966293
70.400004,0.318457525023533,-0.973424777455962,-1.58893331031407
70.500005,-3.17179407601528,1.1382269480442,-0.159149494175942
70.600005,-2.06151960212312,-1.87297380809208,0.0152758414140124
70.700006,-0.327840231244519,1.0058875281911,-1.40995256922124
70.800007,-1.85839927561845,-0.606695918981312,-0.53603597496037
70.900008,-0.264310936936857,-0.188896000915951,2.35478394909785
71.000008,-3.32825863847123,-0.0846804952609515,-0.623246443657088
71.100008,-0.961945070591207,-0.576822657883281,-2.35755455276033
71.200009,0.475968826439441,-0.137557197891066,-0.801429535892662
71.30001,-1.14833668326677,-0.466015588666798,1.24011701433354
71.400011,-2.36538745450837,-0.348237801137984,0.161664010476415
71.500011,-1.01837098094808,-1.29028257202059,-1.33483873107725
71.600012,0.856699202874999,0.110358756415845,0.426952446930816
71.700013,-3.04386999035753,-1.32502996363636,1.56220615454401
71.800013,-0.216160799581917,-0.0590313089028924,-2.58577922973071
71.900014,-2.50044605496091,-0.619405841065362,0.413957004780932
72.000015,1.02952720200849,-1.15728736064871,0.779102950868312
72.100015,-3.00968192879916,0.335578409094803,-0.487159772375643
72.200015,-0.833229904827647,-1.62194375351939,-0.0279120175034917
72.300016,0.199618000489949,-0.647371684147426,0.625045447697366
72.400016,-1.63333124206027,0.0692728944458653,0.470385853140424
72.500017,-1.86188591426833,-0.918175629878958,-1.09337215844028
72.600017,0.218628055718057,-1.71149817439313,-2.6669884726671
72.700018,-1.73047949244382,0.0831402780857731,-0.531936048002539
72.800019,-0.64711606019417,-1.97827711801988,-1.32585838996244
72.900019,-0.0224326541225625,-0.55554055319204,0.415808989781667
73.00002,-2.74680867364813,0.219931351549204,0.646373244582447
73.100997,0.669615281131365,-3.25232947845715,0.498797036232969
73.200021,-2.13851804841868,0.669289928097398,-2.43871896847013
73.300022,-1.77746224832121,-0.695084685878708,5.13987131382721
73.400022,-0.433386328822221,-2.72729299073985,-0.0407291828845091
73.500023,-2.35619209180978,0.502102498327014,-1.44619821399936
73.600024,-0.227711230306382,-0.318496890937656,-2.18140707704299
73.700024,-0.774256341665185,-3.04844477691865,1.92183837571285
73.800024,-3.32125980184729,0.711942517302219,0.0272613715953174
73.900025,-0.630395825111899,-2.39494162479214,0.340940469685958
73.999995,0.248859679337029,-0.550716490303379,-3.08104144331961
74.099996,-0.695590363771093,-2.05612366304274,0.483139499703415
74.199996,-2.61335741161283,0.672906027044722,1.62036988227276
74.299998,-0.204334488127725,-1.11115416094655,-1.89281698107216
74.399998,-1.07343017891238,0.714589499917582,-2.72240553609012
74.499998,-1.11709969920656,-1.9503164976259,3.63976754423424
74.600975,2.24923250133521,-1.96686276806428,-1.61096979576031
74.7,-0.187818534099948,-0.459198479667497,-2.72256142261661
74.8,-1.15218359485953,-1.39166786165091,-3.12465201911794
74.9,-0.801937210097875,1.09665966111585,0.554828891495773
75.000001,-1.79373257565317,-1.04345784099012,2.6264860895594
75.100002,-0.9343061961298,-0.0192048719056921,1.44468038605187
75.200002,-0.816631991040436,0.300467344421854,-2.81738874485908
75.300003,-0.299515805700405,-1.63683762182318,-0.672426024233824
75.400003,-2.33693105855439,1.03428170582812,0.732104295621508
75.500004,0.325046502696925,-1.02932259786391,-0.133184855793111
75.600005,0.18850889760744,-0.360240866275842,-1.62866178274816
75.700005,-1.43501480754438,0.228928780706039,1.26081345555317
75.800006,-0.700840439973967,-0.1762812292656,0.268174085216503
75.900006,-0.318137743594937,-0.222302656969755,-2.23816317010125
76.000007,0.934527208254775,0.149292746464353,0.302815050041069
76.100008,-0.583028386607814,0.360431311608815,1.40274693368792
76.200008,-1.79175197770236,0.540174368243438,1.26723659778275
76.300008,-1.09834205665331,-0.0765649298364418,-0.503090543231904
76.400009,1.17863661029551,-0.0617487302158802,-2.14465654851739
76.50001,-1.06840332954199,0.228813648957435,0.6030494125599
76.60001,-1.64044318845362,0.589128169236017,-2.80946738277438
76.700011,-0.181611642584211,1.38700185568909,-2.09181133259394
76.800012,2.19244747195034,-0.868864298752968,-0.418940425806362
76.900012,-2.43480349192496,0.624481010222707,0.59469719908527
76.999982,-0.881534036953776,-0.524574530068987,-1.45069736626919
77.100013,-12.2313130469086,-0.0332253007472301,-2.79972942317601
77.200014,4.19674925828946,0.663636180746186,0.0201863411314376
77.300014,1.49275204766377,-0.188335010638867,-0.540263852668498
77.400015,1.64386109494041,-0.319158441054657,1.08160892949827
77.500015,1.77364129565347,0.758833358732307,-0.736787311863114
77.600017,1.42756146226156,-0.150788033147814,-1.79641992284122
77.700016,-1.78198118299003,0.137300596701068,1.96390660204979
77.800018,1.76326839315353,-0.745318767779505,0.830728344289871
77.900018,-1.28751163538405,1.17943759569819,1.11972720196707
78.000019,0.210247094906018,-0.694889328054144,1.89079882405558
78.100019,-0.26892821196711,0.495157391062339,-3.03237792525499
78.200019,-0.469690742625905,0.190051283131631,-0.741621487747328
78.300021,0.0885643638561541,0.527479104411873,-0.953894199390077
78.400021,0.0870241697695097,-0.377479627237991,0.0515968899937358
78.500021,-1.70933538683023,0.917777929750658,-0.803226763630563
78.600022,1.42060015327687,-1.36613039754367,-1.0220154912579
78.700023,-2.05187145695826,0.953118659282267,-0.195588709715893
78.800024,2.56879855566692,1.07401618660851,-1.08629132364413
78.900024,-1.49747604846596,-0.703883093721469,-3.05316300144242
79.000024,0.778373779563778,-0.145923988434393,1.34198280186199
79.100025,-2.59926275064515,0.171695178064552,0.360091961910059
79.200025,2.25318008158265,-1.69267825000232,0.846019823667156
79.300026,-2.01475200677431,1.60779513892225,-2.12618645693171
79.399995,0.554224555916046,-0.23798774182961,-1.18984578018151
79.499996,0.186056715317432,-0.726582447040258,0.000180980747657156
79.599996,-0.72364134629626,0.094606117862709,0.166983550435854
79.699997,-0.373470368579258,0.5445747953954,-1.18760400812584
79.799998,0.540053360625087,-0.733062866411469,-0.896746207236669
79.899998,-0.856426304997077,0.812864229841877,1.36507378425421
79.999999,0.520468877358896,0.169526550552497,-1.21235190911688
80.1,-0.526342889031175,-0.355466357905841,0.682484319282485
80.2,-0.341436063384037,0.711346606451778,-1.33234866105148
80.3,0.863759207130401,0.499582701835577,-1.55077919003865
80.400977,-0.371439266746822,0.0703850886084161,0.377209003738561
80.500002,-0.855429861074177,0.688154107913594,0.280794279926661
80.600002,0.131422292487749,0.458104330882028,-0.635026081151313
80.700002,0.837925928695012,-1.29683549207135,0.785341001548972
80.800003,-1.34362235737191,1.31324367437325,-0.795270361027614
80.900003,0.188809757457236,0.184982316588197,-0.359343485501312
81.000004,1.1018852387903,0.674574214421001,1.14852694342304
81.100005,-0.545848044222764,-0.656684572587376,-0.182522698847336
81.200005,0.438457419616265,0.819497041570551,1.41902771206209
81.300005,-2.12134236375139,0.976022085247872,0.0997176741067329
81.400006,0.812958398931404,-0.0446728218332575,-3.34198943562051
81.500007,1.51758204620616,0.187251005195299,-3.19685344212998
81.600007,-1.1260613288835,1.07397271544815,-0.465664595681184
81.700008,-0.134120816326765,0.608557595876998,-0.126510439253938
81.800009,0.489571416164782,0.0747291160896016,0.0459886650677702
81.900009,-1.02192670896306,0.759050979693147,-0.173665795038405
82.000009,1.27359392755908,-0.620819404303304,-0.588808002251849
82.10001,0.0181510829849991,-0.228511336638361,-0.815683251588655
82.20001,-0.358380437494877,1.12538534551393,0.757053840468581
82.300011,0.550048082869869,-0.438511181955617,3.00781667609311
82.400011,-1.27419439269133,-1.12100873165808,1.82951060698544
82.500011,0.185420146122526,1.80776700259755,-2.67821374263862
82.600013,0.732782536152541,-0.558572605708584,-0.92853332748002
82.700013,-0.564394316207811,-1.49848553286603,1.57236762128122
82.800013,-0.891271358359027,0.503371653585915,-0.993582778989194
82.900014,0.726389760065608,-0.339149919073755,-2.10554100393353
82.999984,-0.245996545390692,-0.304830942718233,-1.66778067375101
83.100015,-9.81541155714761,-0.328740598617867,-2.37022617217578
83.200016,2.62120869365064,0.236536766650113,0.986136698066225
83.300016,3.16479692996794,-0.973770911316712,-0.0240179742547071
83.400016,1.90272637759066,1.24101223004741,-0.494619319894256
83.500017,2.50438769316477,-1.07674626478189,0.594411035809667
83.600017,-0.216862221816431,-0.290424579465401,0.037594064016766
83.700018,0.620863650239453,0.564321527136921,0.690821209763235
83.800018,0.470017070339187,-0.963348080139217,0.523312791968385
83.899958,1.58153449668296,0.20872263350475,-0.432252940833842
84.000019,-9.85364159286489,-0.150826143902476,-1.99674051418743
84.10002,3.52531609086374,1.07860955762585,-0.418758187851731
84.20002,3.44050763858189,0.76229186676583,-0.667369788100172
84.300021,0.793035209911007,-0.0990468199011297,-0.204657598743956
84.400021,2.82139641772393,-0.839153490569119,0.313286238294586
84.500022,1.00357716885075,0.839741424288896,-0.634887297534283
84.600022,1.55318279834587,-0.225899498658193,0.52441684952844
84.700023,-0.44893626649356,-0.59758839831584,-3.37211515710462
84.800024,2.21159336633543,1.23050703885035,-1.34375928486967
84.900024,1.01040589351489,-0.334881908733859,-1.55671627915032
85.000024,-0.428885311619267,0.1730824492602,2.74764651586774
85.100025,1.14268878305066,-0.601323394669802,-1.27979781569702
85.200025,0.293771335352403,1.70573149364433,-0.738873611271689
85.299996,1.22267769314216,-0.779949808519206,0.692933313928944
85.399996,0.70408298658613,-0.885541522518422,-1.66866455715714
85.499996,-1.00744521862165,1.18946288134529,2.10046414571779
85.599997,0.118366542753787,-0.894627001396038,-1.21808694948666
85.699998,0.310384369787061,-0.296842118474186,0.205116814064991
85.799998,-0.217241423438329,0.420637009510586,0.861979738288944
85.899999,0.13179030683903,-1.30748257357654,-1.41718428441526
86,-0.950315816190711,1.35269932771225,1.1992228807105
86.1,0.48444915007117,-0.988890720123591,0.854052280808162
86.200001,-0.927635566888922,1.22047352839371,-3.15298256290292
86.300001,0.319366780469364,-0.742533052449251,1.39948962391181
86.400001,-0.733517578016961,0.552025105401813,2.93275409904791
86.500002,0.963937574094682,-0.948452295577187,-1.39197749044352
86.600002,0.378889380176523,1.27792883021114,-0.382746544016004
86.700003,-0.88982764545228,-0.596092318876715,-1.8945987690409
86.800003,2.01612591900652,-0.277105743971408,-2.74162933907762
86.900004,0.862328050605059,0.655278285630187,-2.66576604896733
87.000005,0.307523761872965,-0.386111336557886,1.93768096507542
87.100006,0.503192606403902,0.712132601448819,2.23827723879736
87.200007,-0.844570041856812,-0.222061361194191,0.387102687714688
87.300006,1.45445227017485,1.1219849998245,-1.46367210900858
87.400007,0.17564209464627,-0.559267832727301,-1.20834879380112
87.500008,0.605603236164168,0.669661292321394,-0.997192479983956
87.600008,-0.610699364796258,-0.613698577311615,1.15396251485488
87.700008,0.278026305722946,0.322539878017758,-1.46260546487061
87.800009,0.0375383976510235,0.348693592389146,-0.51369510908557
87.900011,0.692232012101143,-0.912098642531708,-0.653831535239849
88.00001,0.305490479953322,-0.611142903233273,-1.38941080256039
88.100011,0.31950389525374,0.387581326413352,0.572050272534752
88.200011,-1.07837808720757,-0.687678538529539,1.94801393981035
88.300013,2.04281548095577,-1.52623375769486,0.470718411713951
88.400013,-0.848075684663793,-0.109979219406288,-1.03006380846366
88.500013,0.237460027690537,-0.903397593495734,-1.75026293962564
88.620384,0.302904776662816,-0.326713194570816,-0.301006733660737
88.700014,1.67858304221645,-1.73624536044781,-0.878514050453529
88.800015,-0.224532510908196,-0.170184296659595,-1.94943499352115
88.900016,0.539219408737598,-0.149024955211923,2.33614438602749
